// Auto-generated model parameters header
// Architecture metadata
#define NUM_LAYERS 3
#define INPUT_DIM 36
#define NUM_CLASSES 5
// Layer sizes: 50, 15, 5
// Activations: relu, relu, softmax

// Weights and biases
// shape: (36, 50)
const float weights_0[] = {0.29189366f, -0.00023160f, 0.63807642f, 0.01453178f, -0.11537341f, 0.50833678f, 0.31500566f, -0.62056011f, 0.28569931f, -0.32405183f, 0.21095315f, -0.13115208f, -0.11062212f, 0.75060314f, -0.36908847f, 0.70402408f, 0.00053804f, 0.15231405f, 0.06758324f, 0.20306805f, 0.16915315f, 0.44346529f, -1.03852034f, 0.56625783f, 0.30919603f, -0.76470768f, -0.68043715f, -0.21482402f, 0.09715277f, 1.12284505f, -1.08354366f, 0.32315710f, 0.18487583f, -0.27885142f, 0.22727811f, 0.30314896f, -0.76126176f, 0.34611061f, 0.24049412f, 0.29483968f, 0.16347261f, -0.06897267f, 0.22286561f, 0.23694305f, -0.14290091f, 0.77419633f, 0.05072572f, -0.46763471f, 0.10631103f, 0.40691546f, 0.04350321f, -0.10564809f, 0.15698799f, -0.27475211f, 0.16238271f, -0.04392406f, -0.05968903f, 0.09442318f, 0.11368714f, 0.36190513f, -0.20751001f, -0.12105153f, 0.28057253f, 0.17487711f, 0.37968701f, -0.06528265f, -0.34330457f, 0.18925023f, -0.09355161f, 0.00369553f, -0.01167005f, 0.00082122f, 0.14979580f, -0.16559955f, -0.01938435f, 0.22572207f, 0.04448025f, 0.05350326f, -0.16133231f, 0.25072888f, -0.01002547f, 0.09375872f, 0.14490056f, -0.09094607f, 0.01048851f, 0.31465867f, -0.08380275f, -0.14680582f, 0.12640035f, -0.04093157f, -0.20001684f, 0.17436478f, -0.00629581f, 0.00464388f, 0.05306099f, 0.01481908f, 0.17717962f, 0.13446993f, 0.12531276f, -0.11720757f, 1.29488802f, 0.08477521f, 0.36672184f, 0.01125293f, 1.43444669f, 0.97878063f, -0.18466982f, -2.02756715f, -0.23593299f, 0.01825547f, 0.21281543f, -0.31008035f, 1.54064763f, -0.43773896f, 0.32640687f, 1.20075154f, -0.27503607f, -1.47903800f, -0.22410370f, -1.51386011f, -0.21975218f, 1.68846786f, -0.49989945f, 0.52962601f, -0.13313180f, 0.41903999f, -0.08684370f, -0.73839015f, 0.18257067f, 0.43800539f, -0.21930453f, 0.63933802f, 0.29557484f, -2.02923226f, 0.25735494f, 0.39671558f, -0.82069409f, -0.44492275f, -0.61518878f, 1.57384849f, 0.50837421f, 0.00827658f, 0.43636003f, -0.07622653f, -0.08152060f, 0.76714170f, -0.92142707f, -1.53538823f, 1.54503250f, -1.44629824f, 0.11174415f, 0.07995421f, 0.00033417f, -0.23336832f, 0.44110474f, -0.08314013f, -0.33410966f, -0.38164940f, 0.35704711f, 0.06084822f, 0.21711592f, -0.09970617f, 0.19644928f, 0.03024059f, -0.12558526f, 0.33578286f, 0.23375702f, -0.23096491f, -0.19139150f, 0.06477392f, 0.03829442f, 0.10908992f, 0.06416074f, 0.01456051f, -0.33265185f, -0.06596854f, 0.15209119f, 0.02465428f, 0.18529494f, -0.07930253f, 0.36341074f, 0.17473347f, 0.37375426f, -0.17140426f, -0.34502202f, 0.34982905f, 0.10669938f, -0.58684403f, 0.09632818f, 0.20549831f, -0.12623221f, -0.31616309f, 0.01216043f, -0.09057676f, -0.03695659f, 0.69022202f, -0.07850621f, -0.14378901f, 0.29986021f, 0.11541706f, -0.54651809f, 0.36333174f, -0.06422385f, -0.15727676f, -0.70368135f, -0.14757910f, -0.05220115f, 0.12603995f, -0.18394376f, -0.23463553f, 0.31171709f, -0.13419403f, -0.52068180f, 0.62205786f, 0.11158559f, -0.56630331f, -0.42150798f, 0.22172925f, -0.06240626f, 0.60365015f, 0.15798044f, -0.55001074f, -0.11959742f, 0.08891053f, 0.42421913f, -0.45792329f, -0.29809344f, -0.05282168f, 0.09047177f, -0.01769578f, 0.24066012f, -0.18813200f, -0.23570883f, 0.25562730f, 0.09016863f, 0.32579878f, -0.09619143f, 0.48247600f, -0.15103030f, -0.09194008f, -0.41093451f, -0.25146496f, 0.16999906f, -0.57478213f, -0.14742084f, -0.19357330f, -0.03894282f, 0.32654953f, -0.37981597f, 0.56202370f, -0.13836046f, -0.18725757f, 0.28969309f, 0.24610065f, 0.35655183f, -0.28148499f, 0.23215191f, 0.02793527f, -0.08969218f, -0.18380223f, -0.06195075f, -0.09632605f, 0.15011330f, -0.06675838f, 0.00874121f, 0.09445346f, -0.18195310f, 0.02196514f, -0.15562718f, -0.07562020f, 0.08626439f, -0.03108678f, 0.33454007f, 0.17364410f, 0.11191228f, 0.39203894f, 0.28670776f, -0.05382025f, 0.14409682f, -0.20908177f, 0.12504658f, -0.02673047f, -0.27680635f, 0.06814995f, 0.05685045f, 0.07375940f, 0.02090874f, 0.13858131f, -0.35050738f, -0.21416624f, -0.01471153f, 0.02458030f, -0.01249592f, -0.26871273f, 0.34449098f, -0.08354607f, -0.14550519f, -0.32346275f, 0.13473535f, 0.08987322f, -0.29964790f, 0.28777626f, 0.42845148f, -0.18763031f, 0.02227338f, -0.23004809f, 0.29294741f, -0.10459377f, 0.29979345f, 0.12153991f, -0.19670077f, -0.02353518f, 0.01816041f, -0.55377591f, 0.12356256f, 0.10485107f, 0.09825819f, 0.31959912f, -0.29407248f, -0.34161884f, -0.09791563f, -0.09901109f, 0.07441352f, 0.49434623f, 0.03617795f, -0.14875330f, 0.65575808f, -0.02204185f, 0.10427997f, -0.24469554f, -0.03448305f, -0.34089771f, -0.42948994f, -0.19752066f, -0.45318094f, -0.16130506f, 0.11587773f, 0.40985233f, 0.05958266f, -0.05776891f, 0.26231936f, -0.02110804f, -0.06493553f, 0.39420682f, 0.12820570f, 0.01780570f, 0.22250356f, 0.21871565f, -0.16429088f, 0.09016421f, 0.39352179f, 0.09417818f, -0.18867247f, 0.06386135f, -0.05704206f, -0.15025537f, 0.31028035f, -0.28665063f, -0.20702526f, -0.06207242f, 0.45220682f, 0.17139085f, 0.18591686f, 0.07044417f, 0.17712454f, 0.25390521f, 0.11599836f, -0.19079569f, -0.22935982f, -0.00824542f, -0.08835634f, 0.18092538f, 0.28058076f, -0.35101691f, -0.36466885f, -0.30831090f, 0.12940718f, -0.41905496f, 0.35794437f, -0.39150119f, -0.32968932f, -0.02223495f, -0.30867970f, 0.19001640f, 0.34859902f, -0.08585508f, 0.18389884f, -0.21915564f, -0.45179397f, -0.07256199f, 0.34827170f, 0.01278846f, -0.14208759f, -0.10088021f, 0.11334676f, -0.13519275f, -0.00292275f, -0.09261735f, -0.07642242f, -0.06468399f, -0.22174329f, -0.07822300f, -0.09802847f, 0.18502009f, 0.07831867f, 0.04250761f, 0.09387619f, -0.20585187f, -0.29765657f, -0.33483857f, -0.10693516f, -0.30233005f, -0.28282148f, -0.19874977f, -0.18096258f, 0.06727894f, -0.00677461f, -0.26211646f, 0.25575742f, -0.27562460f, 0.42790246f, -0.15914750f, 0.06178118f, -0.02081227f, 0.15943618f, -0.07906646f, -0.20501491f, -0.12211839f, 0.06478701f, -0.51008606f, 0.10788551f, -0.20162360f, -0.19944951f, 0.09944033f, 0.04004986f, 0.07295401f, 0.05184227f, 0.11203901f, 0.24330759f, 0.18178339f, 0.21580377f, -0.18286867f, 0.30412093f, -0.24286360f, 0.27150750f, 0.05101252f, -0.23821296f, -0.22341986f, 0.18812175f, -0.28160647f, 0.28820801f, 0.18392888f, -0.04595034f, 0.13514476f, 0.01850851f, 0.23351890f, 0.37609503f, -0.05859756f, -0.04609203f, -0.11728405f, 0.16469054f, -0.01186251f, 0.10238548f, -0.19592465f, -0.02727061f, -0.03415615f, 0.18310177f, 0.17756610f, 0.17928281f, 0.03014728f, -0.00113704f, -0.00565892f, -0.08644155f, 0.23408464f, -0.22993629f, -0.19097592f, -0.03790629f, 0.11409889f, -0.04496892f, -0.31121624f, -0.14989841f, -0.12896854f, -0.34720156f, -0.07398838f, -0.02891675f, 0.22741261f, 0.11341724f, -0.14179361f, -0.01258208f, -0.07420529f, -0.19306640f, 0.30236420f, 0.00860855f, 0.00236387f, -0.28064233f, -0.19427764f, -0.17687823f, 0.11231216f, 0.23478496f, -0.24104421f, -0.25848132f, 0.10462452f, -0.07138613f, -0.07782228f, -0.25278577f, 0.11134611f, 0.05509314f, -0.09284696f, -0.01056096f, 0.29705161f, 0.24955225f, -0.09683519f, 0.03524914f, -0.07227029f, 0.33977166f, -0.24889635f, -0.17901568f, -0.25533181f, 0.25742146f, 0.04406387f, 0.34487370f, -0.14607473f, 0.16413593f, -0.06682722f, 0.41211769f, 0.26848742f, -0.06466638f, -0.04781747f, -0.26223201f, -0.04223986f, 0.29426455f, -0.22706255f, -0.03998369f, -0.12161858f, -0.25770223f, 0.13362415f, -0.07493252f, -0.22343872f, 0.08089981f, 0.01638349f, -0.32550710f, 0.18358213f, 0.20435876f, -0.30774510f, 0.00774208f, -0.13952801f, -0.01747199f, 0.15614675f, -0.08343565f, 0.09224570f, 0.18308437f, 0.22493219f, -0.09301321f, 0.20944372f, 0.06486229f, 0.02333581f, 0.05420601f, 0.20771897f, -0.00126532f, 0.19410062f, -0.13147782f, 0.32588738f, -0.15822524f, 0.06490882f, -0.20534365f, -0.16569701f, -0.08759123f, 0.06805953f, 0.19445714f, 0.01279707f, 0.16001059f, 0.22815253f, -0.01548534f, 0.04548281f, 0.08815667f, 0.11173739f, -0.23879436f, 0.20267096f, -0.05343222f, -0.06557381f, -0.24478893f, -0.33771560f, 0.04846558f, 0.17782286f, -0.07295854f, 0.23657213f, 0.20251340f, -0.15490924f, -0.22682250f, -0.17236210f, 0.03728642f, 0.13687074f, 0.50892752f, -0.26698786f, 0.10768361f, 0.11261036f, -0.15270123f, 0.25795951f, -0.27050588f, -0.17906033f, -0.09860959f, 0.27519286f, 0.63265270f, -0.23269457f, 0.29737565f, 0.00395566f, -0.17762299f, 0.08957239f, 0.25477093f, 0.01997808f, -0.11327493f, -0.08929873f, -0.15417966f, -0.31281802f, -0.22277676f, 0.33191270f, 0.61775917f, 0.31658155f, -0.35069031f, -0.10366390f, 0.19069688f, -0.32132947f, -0.22013490f, 0.45811188f, -0.54910749f, 0.13083659f, 0.17918070f, 0.09521842f, 0.38808444f, -0.37937596f, -0.12797661f, -0.29473120f, 0.15681350f, 0.04133234f, 0.32342887f, -0.21394543f, -0.16847016f, 0.45567852f, 0.00926650f, -0.29596019f, 0.27747178f, 0.19426277f, 0.17413606f, 0.33946991f, 0.38997173f, -0.28009576f, 0.17098254f, 0.00016744f, -0.16262414f, -0.13648753f, 0.17161132f, -0.02302864f, -0.04522056f, 0.11949146f, 0.24458878f, -0.26823154f, 0.33888495f, 0.15645808f, 0.22533385f, -0.41926011f, 0.34562925f, 0.34641927f, -0.49237099f, -0.07939710f, -0.44534007f, 0.11030450f, -0.04286486f, 0.17823377f, 0.24049494f, 0.19594362f, 0.12274329f, -0.17418474f, 0.10494565f, 0.08723709f, 0.18084653f, 0.11620548f, 0.15120392f, 0.29576993f, 0.02338126f, -0.46866691f, 0.07086286f, -0.19683774f, 0.17449661f, -0.04174399f, 0.16899458f, 0.09492084f, -0.16915897f, -0.07266993f, -0.04682149f, 0.15732780f, 0.13123807f, 0.08724266f, -0.19258228f, 0.13561060f, -0.11816880f, 0.29651192f, 0.13988969f, -0.22377047f, 0.01196288f, 0.04763439f, 0.16097112f, 0.33227932f, -0.28603607f, 0.20820537f, 0.06341587f, 0.19375063f, -0.27346098f, -0.33147848f, -0.43197474f, 0.17912459f, -0.19112691f, -0.19175936f, -0.09543435f, -0.03877815f, 0.04256018f, -0.08634546f, -0.05782010f, -0.38285795f, 0.30039164f, -0.04634185f, 0.65657926f, 0.15693605f, -0.08698988f, 0.17226145f, 0.12229978f, 0.28636920f, -0.12727223f, -0.36007348f, 0.21061943f, -0.18657842f, -0.04982600f, 0.37655967f, -0.21197776f, -0.02042311f, -0.19742849f, 0.37141120f, -0.45515114f, -0.04445161f, -0.19659947f, 0.10609037f, -0.25539264f, 0.21886103f, 0.44981742f, -0.20314202f, 0.27621901f, 0.17651714f, -0.30302733f, -0.06543350f, 0.02992566f, -0.22166367f, -0.16099736f, 0.11313829f, -0.22403654f, 0.30663911f, -0.19428967f, -0.21349400f, 0.29528162f, 0.09176923f, -0.12320378f, 0.07517770f, 0.30716702f, -0.05447018f, 0.18666556f, -0.06053400f, 0.16443014f, 0.07467943f, -0.06175227f, -0.25452849f, 0.07875095f, -0.29465419f, 0.00166298f, -0.16101344f, -0.18871418f, -0.17236230f, -0.17347977f, 0.12578893f, 0.08274727f, -0.30503756f, -0.30662113f, -0.35827002f, -0.09491096f, -0.24064402f, -0.02979398f, -0.13575381f, 0.03457852f, 0.34652841f, 0.19448535f, -0.34207708f, 0.06540292f, 0.02875553f, 0.07508823f, 0.22716682f, 0.14492759f, 0.01790342f, 0.13913977f, -0.19629180f, -0.27076042f, -0.22089031f, -0.07206893f, 0.08985396f, -0.17675886f, -0.12811178f, -0.21758494f, 0.18084836f, -0.11724682f, 0.01510125f, -0.26560849f, 0.14674979f, -0.20285812f, 0.16810687f, -0.19312733f, -0.02224810f, 0.18297720f, 0.24342704f, 0.09379809f, -0.06658545f, -0.25375432f, -0.14584106f, -0.09430140f, 0.22008872f, 0.27079356f, 0.10781305f, -0.23903474f, 0.04313356f, 0.11228245f, 0.02193834f, -0.22351214f, 0.12574929f, 0.43188709f, -0.43103954f, 0.42069653f, -0.26970309f, -0.40082023f, -0.15880789f, -0.09920022f, 0.03758296f, -0.06960162f, 0.24361707f, 0.20452425f, -0.10309798f, -0.12690695f, 0.23507448f, 0.34282461f, 0.00454969f, 0.14792588f, 0.31793174f, -0.20185076f, 0.03836553f, 0.21546724f, -0.17512006f, -0.10479534f, 0.51456320f, 0.07141791f, -0.08863683f, 0.12653108f, 0.22324631f, -0.08929384f, 0.02324392f, 0.20165960f, 0.11608283f, -0.07790347f, 0.31254065f, 0.27744356f, -0.33004543f, 0.11272875f, 0.08618487f, 0.20749362f, -0.12657544f, 0.19286914f, -0.43632594f, 0.36509317f, -0.18552969f, -0.22421637f, 0.20161438f, -0.20782159f, -0.03435268f, -0.04851486f, -0.09327015f, 0.55140007f, -0.36031410f, -0.27587569f, 0.05422729f, -0.28275469f, 0.07715821f, 0.48193115f, 0.47925475f, -0.02191200f, 0.16227597f, -0.26577228f, 0.35616562f, 0.28547645f, -0.31616330f, 0.30746135f, -0.05913529f, -0.00735113f, -0.05556044f, -0.20417194f, -0.12333176f, 0.15657981f, -0.38598335f, -0.00884792f, -0.16087699f, -0.06719428f, 0.00955605f, -0.12323880f, 0.13702677f, 0.21051109f, -0.02729875f, 0.27669227f, -0.15203626f, -0.27899733f, -0.00407172f, 0.19431667f, 0.56439316f, -0.20830134f, 0.19127692f, -0.11919946f, -0.11738510f, -0.30004126f, 0.10419793f, 0.17425945f, -0.07049789f, -0.53657746f, -0.07674517f, -0.06914937f, -0.61597365f, -0.48032695f, 0.37397340f, -0.04004349f, 0.32362887f, -0.19716370f, -0.04537155f, 0.22690728f, -0.14486083f, -0.17528598f, 0.31728944f, -0.37062562f, 0.14807062f, -0.20831798f, -0.02938617f, 0.26050189f, -0.34818840f, 0.27338800f, -0.00379063f, 0.10167334f, 0.44352877f, 0.31552550f, 0.02297050f, 0.13489521f, 0.46924219f, 0.17930248f, 0.13351911f, -0.04509629f, 0.11519033f, 0.00991592f, 0.51662874f, -0.13889702f, -0.29214433f, -0.17473131f, 0.29237497f, -0.06447125f, -0.51615882f, 0.22762062f, 0.09356149f, 0.34805614f, -0.05660911f, 0.08426324f, -0.12037306f, -0.06280234f, 0.08611231f, -0.08011417f, 0.22596042f, -0.34280279f, 0.26079062f, 0.03920865f, -0.09244175f, -0.06318662f, 0.06939024f, -0.12595055f, 0.61022037f, -0.25255448f, 0.35495415f, 0.12944381f, -0.29116210f, -0.25567371f, -0.03331183f, 0.14179248f, 0.27544180f, 0.21047868f, -0.08522495f, -0.23727860f, 0.01471394f, 0.10039128f, -0.08261888f, 0.04728311f, -0.07627993f, -0.23628934f, 0.05742165f, -0.22803231f, -0.06848413f, 0.03657007f, 0.06484915f, -0.26663607f, -0.19691789f, 0.03496470f, 0.13497044f, 0.02250596f, -0.38200408f, -0.06958130f, -0.03257996f, -0.04983722f, -0.03394227f, -0.10819204f, 0.12098813f, 0.25798929f, 0.29579535f, 0.15396209f, -0.33157215f, -0.15076956f, 0.06172666f, -0.04501342f, 0.30073920f, 0.21828616f, 0.15322764f, -0.06440328f, -0.02306673f, -0.13354596f, 0.03624770f, 0.17985114f, 0.15259416f, -0.35859141f, 0.18614914f, 0.32304919f, -0.22421247f, -0.31538239f, -0.13163438f, 0.19488972f, -0.15709028f, -0.20369385f, 0.04056673f, -0.19349693f, 0.20410131f, 0.14348176f, -0.14484003f, -0.25438386f, -0.00623162f, -0.18675089f, -0.32440984f, 0.29864666f, -0.08389424f, 0.15202047f, -0.04546971f, -0.07510803f, -0.11870712f, 0.01638323f, 0.23766710f, -0.32038152f, 0.17396802f, -0.10551172f, -0.24828981f, -0.31479046f, -0.38366938f, 0.08802902f, 0.10553048f, -0.11656658f, -0.04062314f, 0.10602769f, 0.13019131f, -0.06704335f, 0.00498011f, 0.26149827f, 0.11919542f, 0.03439911f, 0.07187274f, -0.20194133f, 0.11743791f, -0.05099167f, 0.25601572f, 0.30173185f, -0.08967895f, 0.08887759f, -0.12167885f, -0.04718436f, 0.21799007f, 0.21410629f, -0.08570007f, 0.10425308f, 0.11638948f, 0.04086896f, 0.21944049f, -0.15284000f, -0.01024568f, -0.13356708f, -0.30222747f, -0.24165446f, 0.09344889f, -0.17521212f, 0.15967321f, 0.01231957f, 0.28459516f, -0.36291996f, -0.18833017f, -0.31410772f, -0.20819369f, -0.08383939f, 0.03929779f, -0.09547080f, -0.12120450f, -0.09530168f, -0.37813887f, 0.20266393f, 0.12631145f, 0.03702339f, 0.18267745f, -0.18255226f, 0.21749848f, -0.33578020f, 0.07162871f, 0.07162633f, 0.39821792f, -0.21087590f, -0.21028908f, 0.25288555f, 0.19911915f, 0.11341394f, -0.03837132f, -0.00395762f, 0.16799586f, -0.11012983f, -0.01906747f, -0.20048523f, 0.21115814f, 0.31883183f, 0.13154753f, -0.15682934f, 0.33357882f, 0.22369872f, -0.11671417f, -0.29907143f, 0.10266466f, 0.04421203f, -0.21909331f, -0.02904773f, 0.06818878f, 0.09075861f, 0.33316243f, 0.15618964f, 0.20976368f, -0.11724871f, 0.44081363f, 0.24421233f, -0.16308457f, 0.26084876f, 0.17600933f, 0.24364711f, -0.01484283f, -0.08722246f, 0.02501651f, -0.01923271f, 0.03483432f, -0.03645483f, 0.04947815f, 0.25941494f, -0.25829086f, -0.13234791f, 0.25291416f, 0.20185614f, 0.20740992f, 0.20149420f, -0.38683307f, -0.08697306f, -0.14223568f, 0.23676895f, -0.16451010f, -0.10852911f, 0.31123230f, 0.18410468f, -0.02792065f, -0.12896982f, 0.16714397f, -0.06045897f, 0.16045120f, 0.04199740f, 0.06109444f, -0.26573506f, 0.07679972f, -0.01292407f, 0.19388483f, -0.34559599f, -0.32821488f, 0.12733100f, 0.02807252f, 0.07633076f, 0.12964118f, -0.11442945f, 0.06144569f, 0.29572144f, 0.04704934f, -0.13719939f, 0.08529988f, -0.31437850f, -0.03549800f, 0.39489511f, 0.12986231f, -0.28193539f, 0.05303765f, 0.12869489f, -0.06699166f, 0.13690311f, -0.32926485f, 0.10123681f, 0.12514152f, -0.00937615f, 0.08897657f, -0.07080249f, 0.19133006f, 0.34053203f, 0.16047424f, 0.05200862f, 0.22067966f, 0.02830503f, -0.18322846f, -0.52152258f, 0.68960279f, -0.05464164f, -0.63140637f, 0.21055630f, 0.37311417f, 0.05197273f, -0.10544636f, -0.48692891f, -0.08430988f, -0.13912435f, -0.07151891f, -0.15034875f, 0.31069180f, -0.31060022f, 0.69397157f, 0.11117360f, -0.02852154f, 0.53263015f, 0.16050439f, 0.33654657f, 0.15287404f, 0.07890028f, 0.17195696f, 0.26011637f, -0.11869569f, -0.01274923f, 0.21535963f, 0.16836354f, -0.18133077f, 0.28282541f, 0.14501218f, -0.00141947f, 0.32728657f, -0.00078224f, -0.23380002f, -0.23321471f, 0.44910613f, 0.13024847f, 0.24140224f, 0.36295393f, -0.20877253f, 0.37279809f, -0.28817800f, -0.28818709f, -0.25077978f, -0.08125352f, -0.13881388f, -0.02133480f, -0.09763274f, -0.20463909f, -0.23407157f, -0.28187239f, 0.12029934f, -0.29974377f, -0.08434627f, 0.15575185f, 0.19147801f, -0.32400429f, 0.10353121f, -0.03606429f, -0.03991393f, -0.06488767f, 0.40824428f, -0.01379335f, 0.15250932f, -0.29312631f, -0.26976040f, 0.23555198f, -0.23421645f, 0.24454242f, -0.01127553f, 0.03088031f, 0.01167004f, -0.03325049f, -0.13890707f, -0.19849196f, -0.20749125f, 0.06007445f, 0.17044121f, 0.20632437f, -0.41836593f, -0.05770735f, 0.02237275f, 0.16777511f, -0.46793902f, -0.17173277f, -0.34350243f, 0.05887190f, -0.09850553f, 0.25340703f, 0.19076361f, -0.06868894f, 0.14578839f, 0.08084499f, -0.25551647f, -0.08875185f, 0.00281000f, 0.30301264f, 0.14977694f, -0.27928656f, 0.04209311f, 0.20783070f, -0.14359476f, -0.08782405f, -0.01546891f, -0.28486019f, -0.09014386f, 0.19688456f, 0.17506953f, -0.37858853f, -0.32447374f, -0.15379167f, 0.16687429f, -0.06056768f, 0.11406941f, -0.00997723f, 0.40289488f, 0.31764656f, -0.16062388f, 0.38685125f, -0.28297648f, 0.34574088f, -0.08601562f, -0.14972818f, -0.15158738f, 0.28080475f, -0.16763236f, -0.07637984f, -0.16755810f, 0.06600995f, 0.09801258f, -0.10835752f, 0.06926919f, 0.17340064f, 0.11619332f, 0.27391315f, -0.27611837f, 0.24890365f, -0.05086186f, -0.20206155f, -0.04712711f, 0.24791102f, -0.22008707f, -0.02694938f, 0.17126501f, -0.18266204f, 0.16263069f, 0.15743604f, -0.00460363f, -0.00746371f, -0.10883918f, 0.14245927f, -0.26497778f, 0.31644014f, 0.15516581f, -0.11191940f, -0.44752169f, 0.06760133f, -0.19958009f, -0.06329644f, 0.01496649f, 0.10207812f, 0.29837734f, 0.27654943f, -0.29705316f, -0.01530533f, 0.01781917f, 0.08428147f, 0.17331819f, -0.18550286f, 0.04396126f, 0.12168755f, 0.15378654f, -0.01700276f, -0.23372282f, 0.05201659f, -0.31274268f, -0.13536243f, -0.04403501f, -0.09085558f, 0.13032763f, -0.07580907f, 0.07503371f, 0.23257402f, 0.09117969f, -0.20215009f, -0.25282943f, 0.22419214f, 0.23699632f, -0.29061711f, -0.02272292f, -0.22694887f, 0.11965021f, 0.04143640f, -0.13957195f, -0.16794452f, 0.36526996f, -0.16661254f, -0.16224921f, -0.29402164f, 0.20558897f, 0.54862893f, 0.01618184f, -0.33273682f, -0.14791897f, 0.15960090f, -0.08157197f, 0.38166314f, -0.29921383f, -0.21290569f, 0.13103285f, -0.07699164f, 0.25588319f, 0.00195828f, 0.32469097f, 0.48003942f, -0.03154394f, 0.03223462f, -0.13786164f, 0.17706876f, 0.01077655f, -0.00950446f, 0.13418478f, -0.15581484f, -0.08934139f, -0.02513714f, 0.07652410f, -0.22130534f, -0.04443064f, 0.06612526f, 0.26576245f, -0.14754257f, -0.21715802f, 0.02202380f, -0.14708681f, 0.16249219f, -0.05963659f, -0.30496413f, 0.32858154f, -0.15851702f, 0.01066382f, 0.18844275f, 0.05824236f, -0.13029091f, -0.17713296f, 0.23770562f, 0.11044540f, -0.14903522f, 0.26738319f, -0.18914106f, -0.11256252f, -0.21353596f, -0.13087736f, 0.14959306f, -0.14919710f, 0.06544910f, -0.15478629f, -0.12597717f, -0.30807829f, 0.17844078f, -0.25678927f, -0.08244519f, 0.37000820f, 0.17206284f, -0.10954811f, 0.01686901f, -0.12870696f, 0.16244788f, 0.05256552f, -0.03044979f, 0.28915232f, 0.00573720f, 0.02566063f, 0.15746590f, -0.00713649f, -0.06268645f, 0.09003960f, 0.30741504f, 0.25675899f, -0.02379048f, -0.39975750f, -0.06681850f, -0.15223964f, -0.02758599f, -0.11453947f, 0.21533972f, 0.09694830f, -0.28630605f, -0.24594210f, 0.07268804f, -0.31040746f, -0.19617066f, 0.03383346f, 0.22504058f, -0.01225087f, -0.35756737f, -0.39942601f, -0.07987881f, -0.05577162f, 0.23129426f, 0.02987029f, -0.07140366f, -0.26188433f, 0.05257142f, 0.28193289f, 0.28965408f, -0.37915412f, -0.13110544f, -0.02870503f, -0.07718463f, 0.04127791f, 0.21672599f, 0.12960477f, 0.18706813f, 0.03406186f, 0.05412556f, -0.01634600f, -0.09885066f, -0.22713068f, 0.29309183f, -0.01943723f, 0.15511683f, -0.13425928f, 0.22732642f, -0.00863082f, -0.20259649f, -0.00741839f, -0.41421184f, 0.32402226f, -0.19607843f, 0.17762439f, -0.69465744f, -0.71338022f, 0.13466045f, 0.47443241f, 0.56025535f, -0.19339956f, 0.11164439f, 0.56743115f, -0.99175781f, -0.28983572f, -0.56232458f, 0.15677185f, 0.34676525f, 0.24383086f, -0.15047789f, 0.41115454f, -0.11897305f, -0.83221769f, 0.61540389f, -0.25999361f, -0.01777779f, 0.18324721f, 0.34136724f, 0.55930114f, -0.08895297f, -0.85744101f, 0.74049574f, -0.99972951f, 0.28020024f, 0.60255861f, 0.70386517f, -0.07862671f, 0.82852048f, -0.02721012f, 0.22065815f, -0.59740812f, -0.17683156f, -0.25468329f, 0.19259606f, 0.67360055f, -0.14293234f, -0.80515701f, 0.40026900f, 0.38304406f, -0.85067719f, 0.83246744f, 0.23640390f, 0.31034246f, -0.35676289f, -0.10740854f, -0.14375262f, 0.12664182f, 0.07324407f, 0.04264931f, 0.00290038f, 0.03118491f, -0.10641733f, 0.05690014f, -0.09191316f, 0.03881464f, -0.21320222f, -0.15721051f, 0.10662860f, -0.03598115f, 0.23916887f, 0.08904486f, 0.66427761f, 0.17873862f, 0.14854136f, 0.19261917f, 0.36321199f, -0.23184708f, -0.25265449f, -0.26265085f, 0.06742433f, -0.02876456f, 0.03644470f, -0.16458656f, -0.15349054f, 0.27718064f, -0.03984747f, 0.46375343f, 0.05414056f, 0.32346776f, 0.11413478f, -0.17300349f, -0.28601867f, -0.08379255f, 0.26501426f, -0.07109692f, 0.26663411f, 0.15407032f, 0.06914178f, 0.18791026f, -0.11274245f, -0.28103969f, -0.12155598f, -0.02021338f, -0.31218225f, -0.00557859f, 0.03419299f, -0.20579158f, 0.18637414f, 0.12616344f, -0.12521203f, -0.06975374f, -0.20207423f, -0.31088242f, 0.00427998f, 0.20555779f, 0.20136309f, 0.27989185f, -0.19312553f, 0.02814087f, -0.17507848f, -0.15076268f, 0.16002108f, 0.25988349f, 0.08048326f, -0.12027410f, -0.23913020f, -0.23985036f, 0.15705702f, -0.25687662f, -0.23648313f, -0.17019574f, -0.15460472f, 0.06305485f, 0.00476070f, -0.03175540f, 0.03087770f, 0.36627856f, -0.20348769f, -0.05984765f, -0.33786580f, -0.06891324f, -0.35000852f, -0.12479173f, 0.15325770f, 0.13498773f, 0.13019657f, 0.16348237f, 0.14693682f, -0.05277277f, -0.07547973f, -0.02872290f, 0.20409319f, -0.11522797f, -0.13627958f, -0.14705171f, 0.05883839f, -0.21721160f, 0.00768367f, 0.12097971f, -0.18230897f, -0.03086006f, 0.07166548f, -0.13814715f, -0.06148525f, 0.30185953f, -0.20272857f, 0.20611632f, -0.30883867f, 0.15979318f, -0.15406421f, 0.01711757f, 0.42186972f, 0.05286641f, -0.14918542f, 0.12543160f, 0.36126843f, -0.01926381f, -0.26620916f, -0.01631814f, 0.36789048f, -0.37747300f, 0.17431997f, 0.15349239f, -0.25319490f, 0.02146070f, -0.16652359f, 0.39465976f, -0.28931454f, 0.12586986f, -0.00238841f, -0.15342647f, -0.28686798f, -0.01936081f, 0.59675598f, -0.17275967f, -0.14226964f, -0.02453533f, -0.13433288f, 0.25998905f, -0.20808992f, -0.00252096f, -0.06916851f, 0.40845650f, -0.11887422f, -0.28436381f, 0.07099772f, -0.13776441f, -0.12415166f, -0.40962228f, -0.18668155f, -0.20403835f, 0.18330020f, 0.04746497f, -0.01611773f, 0.05979679f, -0.01205996f, -0.07946260f, -0.19248730f, -0.18102401f, 0.41732964f, -0.15539260f, -0.04202783f, 0.17401813f, 0.02728327f, -0.23416634f, -0.47105959f, -0.29994300f, -0.31243077f, -0.13962746f, 0.35727748f, -0.18809406f, -0.44557464f, -0.03251297f, -0.02257405f, -0.29860198f, 0.29271075f, 0.43577769f, 0.10123115f, 0.22420797f, -0.02754243f, 0.39103574f, -0.15125091f, -0.04290644f, 0.06963613f, -0.33061936f, 0.17237511f, -0.12580296f, 0.12396847f, 0.08249455f, 0.21129654f, -0.25100213f};
// shape: (50,)
const float biases_0[] = {-0.17516223f, 0.10653530f, 0.18214330f, 0.26712623f, -0.03657021f, 0.08903610f, 0.08279659f, 0.14331789f, 0.06322894f, 0.29862580f, 0.09703384f, 0.12201973f, 0.01664794f, 0.11695339f, 0.36294794f, -0.05722357f, 0.03998305f, 0.08882120f, 0.13691683f, 0.33203331f, 0.14109486f, -0.13681722f, -0.00661339f, 0.20840161f, 0.30098021f, 0.14894439f, 0.10558312f, 0.06871259f, 0.17080739f, 0.09723063f, 0.19491886f, -0.03747444f, -0.02114614f, 0.00482469f, 0.31235185f, 0.20518427f, 0.02375031f, 0.19865592f, 0.23610233f, -0.05449583f, 0.16652563f, 0.14493345f, 0.06085210f, -0.03800674f, -0.00034639f, -0.02777056f, 0.07729254f, 0.09460727f, -0.09390648f, 0.31699491f};

// shape: (50, 15)
const float weights_1[] = {-0.05569588f, -0.21066214f, 0.13105105f, 0.46343061f, -0.09305031f, -0.07172307f, 0.35863048f, 0.33465242f, 0.67599028f, -0.37034911f, 0.63221097f, -0.33652046f, 0.45598754f, 0.04186630f, 0.09987922f, 0.24443290f, 0.37606981f, -0.32300961f, -0.10462929f, -0.23285154f, 0.48704392f, 0.28072643f, 0.28348383f, 0.17639464f, -0.35394302f, -0.14977777f, 0.10030423f, 0.06338128f, -0.10387585f, -0.34105453f, 0.02197805f, -0.08067589f, 0.67025924f, -0.47536576f, -0.01476355f, -0.00817695f, 0.10544728f, -0.32359403f, 0.17595688f, -0.59051001f, 0.17216192f, 0.56072360f, -0.29311299f, -0.10640501f, 0.00263314f, -0.00264942f, -0.14207126f, 0.39796871f, -0.12429151f, 0.59455216f, -0.16857475f, 0.21373263f, -0.05303157f, 0.37349117f, 0.32174590f, -0.02203685f, -0.17266676f, -0.18511884f, -0.03463035f, 0.21693228f, 0.27898511f, -0.19711205f, -0.03199707f, -0.03696823f, 0.03796224f, 0.21875055f, -0.21492262f, 0.55246788f, 0.29841235f, -0.34576637f, 0.97750878f, 0.02037787f, 0.26053929f, 0.29011041f, -0.27171597f, 0.55258948f, -0.17704712f, 0.03062480f, -0.11128020f, 0.10953813f, -0.27531740f, 0.44874802f, -0.70274413f, 0.00467516f, -0.20557711f, -0.35861447f, -0.03033166f, 0.55039978f, 0.74327725f, -0.38790330f, 0.28697091f, -0.22698078f, 0.38983828f, 0.08556145f, 0.01902668f, -0.03771891f, -0.01182132f, -0.25067541f, 0.39680621f, 0.22932728f, -0.53933996f, -0.10385059f, 0.11019464f, 0.13981999f, 0.17782089f, -0.17315003f, 0.60678548f, 0.05810716f, -0.27095833f, 0.40141088f, -0.31948832f, -0.04309293f, 0.52540749f, -0.68830132f, 1.00854766f, 0.12512036f, 0.11400741f, -0.32915297f, -0.18321869f, 0.23453499f, 0.22013865f, 0.57701904f, 0.20481870f, 0.15288740f, -0.31542131f, -0.19364397f, -0.29474375f, -0.27504253f, 0.01847580f, 0.17970851f, 0.44347176f, 0.03737606f, -0.43155384f, 0.35094419f, 0.32050148f, 0.16648389f, 0.04559728f, 0.31114969f, -0.30321786f, 0.53694499f, -0.13006173f, 0.09796899f, -0.51109564f, 0.38914728f, 0.53039306f, -0.28367469f, -0.16027308f, 0.14217295f, 0.54226106f, -0.04730137f, 0.19210762f, -0.06208372f, 0.25540748f, -0.16459297f, 0.67546856f, 0.18931922f, -0.34125277f, 0.27373800f, 0.25501901f, 0.19980530f, 0.17819999f, -0.11655540f, 0.12590866f, -0.20669150f, 0.05341944f, 0.18147893f, -0.50402927f, -0.03597094f, 0.32504675f, 0.53581083f, 0.37800893f, -0.18585221f, 0.19006714f, 0.67680001f, -0.10743415f, -0.13551319f, -0.33549687f, -0.26601812f, -0.09781408f, 0.17746377f, 0.15200636f, -0.42202872f, 0.25720143f, -0.09784662f, 0.17128384f, 0.11804397f, -0.04711746f, -0.47784957f, 0.93393844f, -0.47776002f, 0.01887734f, -0.45777422f, 1.02914846f, 0.51784915f, -0.75946814f, -0.34727836f, 0.49189031f, -0.41232795f, 0.32283527f, 0.46635517f, -0.12768318f, 0.50801963f, -0.59200746f, 0.12310326f, 0.41245770f, -0.37616965f, 0.00101732f, 0.48712426f, -0.05203195f, -0.12019982f, 0.63190329f, 0.63649356f, 0.44444406f, -0.18395540f, 0.39043000f, -0.17694223f, 0.09714740f, -0.33724692f, 0.46862862f, 0.53117782f, -0.43143064f, -0.12030212f, 0.22857940f, 0.51161623f, 0.08450375f, 0.70033622f, -0.01557610f, 0.55308104f, 0.69324881f, 0.41929105f, 0.05546061f, 0.49134305f, -0.54090357f, 0.30931076f, -0.67361736f, 0.15919280f, -0.00220774f, 0.20143150f, 0.04765842f, -0.12574303f, 0.12317834f, 0.32227150f, 0.28326264f, 0.43455938f, -0.01206839f, -0.21636203f, -0.05171191f, -0.27237526f, -0.20456022f, -0.45267454f, 0.80463791f, 0.29391277f, 0.10028116f, -0.04621353f, 0.26568809f, -0.18514584f, 0.51129633f, 0.07239623f, 0.18516612f, -0.02964154f, 0.01498750f, -0.25265762f, 0.25315478f, -0.29496911f, 0.08903270f, 0.14596550f, 0.14638267f, -0.40078527f, 0.01609900f, -0.19312049f, -0.09718868f, -0.39939001f, 0.38690600f, -0.35567358f, 0.12601113f, 0.22698651f, 0.17506824f, 0.36708722f, 0.34636188f, 0.21087092f, -0.03364674f, -0.10925744f, 0.21610135f, -0.21330009f, -0.16461460f, -0.22757097f, 0.40220705f, -0.06685465f, -0.17806552f, 0.67217767f, -0.02821874f, 0.31789911f, 0.03391479f, -0.45279768f, 0.48997557f, -0.07612453f, 0.24116276f, -0.08747075f, -0.01074846f, 0.16327257f, -0.39085841f, 0.27459237f, -0.30853719f, 0.17700556f, 0.10682686f, 0.25733769f, 0.39713547f, 0.34367269f, -0.15294528f, 0.49560067f, -0.24026194f, -0.16311179f, -0.14833634f, 0.19354506f, -0.14819302f, 0.17245457f, -0.48002234f, 0.17569734f, 0.56623477f, 0.30568066f, 0.44924459f, 0.51493621f, -0.04303750f, 0.66991985f, -0.53979027f, 0.34744859f, -0.59642792f, 0.49098453f, 0.61646539f, -0.34684357f, -0.40210679f, 0.29933798f, 0.02610699f, -0.17545398f, -0.04512646f, 0.37415087f, 0.03921859f, 0.98981583f, 0.14150375f, -0.03843807f, 0.56472325f, 0.02244160f, -0.19438791f, -0.09133443f, 0.44061425f, -0.21404253f, 0.32738653f, 0.26163557f, -0.03042179f, -0.39660177f, -0.16043420f, 0.41479170f, 0.20560266f, -0.66522688f, -0.11789595f, 0.37404579f, 0.68189055f, -0.37956411f, -0.42213035f, 0.00041594f, -0.31170127f, -0.21866624f, -0.07404941f, 0.36330974f, 0.82574266f, -0.30376121f, 0.45612246f, 0.40159401f, -0.05379346f, 0.59599936f, 0.03819828f, 0.30014229f, 0.18433423f, -0.24664576f, -0.37831485f, 0.14972697f, -0.31765592f, -0.24997075f, -0.18168336f, 0.25105911f, 0.06383216f, -0.23435247f, 1.06904280f, 0.19824760f, 0.21701810f, 0.99379760f, 0.22361059f, 0.15786710f, 0.07054788f, 0.18108317f, 0.01444938f, 0.14040883f, 0.39787936f, -0.16038398f, -0.42956507f, 0.00587505f, 0.03304198f, 0.53484845f, -0.13997622f, -0.16762343f, 0.84567106f, 0.43526188f, -0.08331463f, -0.21156250f, 0.42810562f, 0.11902767f, 0.40220988f, -0.14738077f, 0.33652601f, -0.04532659f, 0.03205743f, 0.01712190f, 0.07558726f, -0.29838860f, 0.27834034f, 0.26530612f, 0.17077807f, 0.07590144f, 0.01786884f, -0.11884690f, -0.42607880f, 0.32780498f, -0.42111540f, -0.15031859f, -0.09332602f, 0.33096346f, 0.42369524f, 0.23774238f, -0.05986457f, -0.19443254f, 0.30278951f, -0.12754023f, 0.17385556f, -0.13008091f, -0.40515509f, 0.21320142f, 0.35684460f, -0.08550034f, -0.03728509f, -0.25472295f, -0.02876931f, -0.23444608f, 0.07818143f, 0.27608135f, 0.42615956f, -0.09996006f, -0.19581532f, 0.05419639f, -0.23737773f, -0.12898356f, -0.04167987f, -0.36718598f, -0.11745939f, 0.02547636f, 0.58722204f, 0.13998413f, 0.22100352f, 1.30216408f, -0.34774715f, 0.40154400f, 0.71684533f, 0.41786695f, 0.10335319f, -0.26233679f, 0.12287610f, -0.24674444f, -0.06128516f, -0.20152226f, -0.10140213f, 0.31757888f, 0.16618595f, 0.12076911f, 0.46237004f, 0.51818442f, 0.21451598f, 0.07167054f, -0.37873152f, 0.32227060f, 0.34330839f, -0.25986895f, 0.00317225f, 0.52315229f, 0.25636795f, 0.01360166f, -0.02840186f, 0.06589305f, -0.21926582f, 0.37793607f, 0.35659668f, 0.11908833f, 0.13250750f, 0.09602635f, 0.15589277f, 0.32023051f, 0.34664157f, -0.13926761f, 0.42328179f, -0.17921238f, 0.29931000f, 0.30604404f, -0.51105726f, -0.15107583f, 0.42396188f, -0.29736465f, 0.80705172f, 0.10981680f, -0.19570023f, -0.53642190f, -0.62109321f, 0.27908829f, -0.14196488f, -0.03862093f, -0.28641647f, 0.39842230f, 0.39584917f, -0.10975918f, -0.00870132f, 0.11531505f, 0.85750443f, -0.34998477f, 0.07165142f, -0.82592851f, 0.10423601f, -0.18387794f, 0.35274893f, 0.10104048f, 0.64134502f, -0.22968462f, -0.23118974f, -0.20135516f, 0.24854776f, 0.61631292f, 0.02529903f, 0.19805770f, 0.20204778f, -0.58820665f, -0.09805238f, -0.16995287f, -0.10212428f, -0.04987793f, 0.45080265f, 0.51063323f, 0.15582807f, 0.07600008f, -0.41275719f, -0.26541778f, 0.07462901f, 0.59849405f, -0.13814132f, 0.68052685f, 0.82847083f, 0.32426801f, -0.35666877f, -0.03779918f, 0.73347294f, -0.11117730f, 0.04025052f, -0.03539200f, -0.40586007f, -0.13708216f, -0.12949832f, 0.17655016f, 0.08748560f, -0.52004099f, 0.02312735f, 0.24844784f, 0.07216334f, -0.02385347f, -0.33286801f, -0.09275214f, 0.12920620f, 0.19553734f, 0.15049805f, 0.03898417f, 0.26468498f, -0.41008511f, -0.00161271f, 0.15462294f, -0.01173575f, 0.52484024f, 0.33989656f, 0.39175457f, -0.00003265f, 0.14916703f, -0.27205089f, -0.10374708f, -0.54122519f, 0.09269150f, 0.22793454f, 0.26836994f, 0.00674787f, 0.56099135f, 0.55530649f, 0.46046036f, -0.38627374f, 0.46208319f, 0.16874436f, 0.55194646f, 0.15501797f, -0.45034066f, 0.13476689f, -0.22528334f, 0.26385453f, -0.45412958f, 0.08942367f, 0.24841163f, 0.14667636f, -0.18819828f, 0.16460697f, -0.45339844f, 0.14083536f, 0.36415377f, -0.55981511f, -0.30636457f, -0.19192390f, 0.13876088f, -0.31545353f, 0.25414747f, -0.29536560f, 0.01509168f, -0.06832699f, -0.16920875f, -0.20636815f, -0.34924895f, 0.19259912f, -0.22197463f, 0.08795354f, -0.18130800f, 0.34256715f, -0.23451532f, -0.41736066f, 0.46368676f, -0.03441720f, 0.03854629f, -0.28330728f, -0.00571415f, 0.72684932f, 0.31034949f, -0.20548870f, -0.11489642f, -0.50521833f, 0.03597983f, -0.09116188f, -0.40705454f, -0.00603095f, 0.31871384f, -0.14162563f, 0.12552620f, 0.18753952f, 0.20993049f, -0.17719185f, -0.32207337f, -0.33268321f, 0.03092956f, -0.37846988f, 0.18977049f, 0.44250238f, -0.39446718f, -0.24601032f, -0.01148043f, -0.12420680f, -0.15648568f, -0.19241995f, 0.02440740f, 0.03702037f, 0.01129097f, 0.39226466f, 0.01309145f, 0.06435940f, -0.03080064f, -0.00207205f, 0.12399040f, 0.18216039f, -0.24955110f, -0.10666159f, 0.17734979f, 0.12055125f, 0.01480765f, 0.12842676f, 0.67618072f, -0.38409069f, 0.35468856f, -0.48344791f, -0.17493138f, 0.14332688f, 0.12816864f, -0.11377564f, 0.46928808f, 0.33081180f, -0.36192930f, 0.01803637f, 0.32151744f, 0.15734121f, -0.12070335f, -0.06869363f, 0.21358730f, -0.31041938f, -0.18851006f, -0.05637556f, -0.11012443f, -0.00169457f, 0.09216759f, -0.25065920f, -0.07147460f, 0.15086694f, 0.10813484f, 0.61997443f, -0.29265985f, 0.09246661f, 0.15762857f, -0.07640269f, 0.08055668f, 0.18870580f, -0.40848613f, 0.87902534f, 0.24932745f, -0.03370608f, -0.20347343f, -0.24872009f, 0.06661112f, -0.19209594f, -0.64094353f, 0.15857424f, 0.13973266f, 0.48335674f, 0.33930790f, 0.15023588f, -0.06113239f, 0.54327023f, -0.20755255f, 0.51825798f, 0.15037586f, 0.60248441f, 0.34604892f, -0.48819295f, -0.03794548f, 0.35562524f, 0.04345884f, -0.14778182f, 0.38539442f, 0.11790502f, -0.14899227f, -0.26681742f, -0.43303028f, 0.41327444f, -0.13557997f, 0.16365714f, -0.13465174f, -0.19513366f, 0.45214707f};
// shape: (15,)
const float biases_1[] = {-0.03469265f, 0.07231777f, 0.11966447f, 0.00539290f, 0.19304150f, 0.05751975f, 0.13281587f, 0.37726828f, -0.01069681f, 0.15483856f, 0.41136497f, 0.17015176f, 0.01085553f, 0.13921620f, 0.04450247f};

// shape: (15, 5)
const float weights_2[] = {0.44843245f, -0.67359650f, -0.58910060f, 0.68331200f, -0.80581653f, -0.12478185f, -0.78983897f, -1.61510706f, -0.44774264f, 0.43218604f, 0.68132961f, -0.32740796f, 0.11106621f, 0.24094124f, -1.00170898f, -1.03477132f, -0.75524127f, -0.71929467f, 0.61229897f, -0.70234138f, -1.50223017f, -0.31439546f, 0.95055342f, 0.00422762f, -0.52401000f, -0.41638231f, -0.02828607f, -0.75504625f, -0.77241647f, -0.62002248f, -0.94215405f, -0.73379797f, 0.25133002f, -1.11143351f, 0.95774084f, 0.42460179f, 0.41052443f, 0.02927507f, -1.80014765f, -1.13699996f, -0.86890876f, 0.68348390f, -1.40278077f, 0.50601381f, -0.95000702f, -0.61384976f, -0.82743996f, 0.15928605f, -0.39518255f, 0.15876764f, 0.47002587f, 0.31550759f, -0.77867097f, -0.76028788f, -1.51624560f, 1.00325382f, -1.09418261f, 0.72565913f, -1.00609231f, -0.24841543f, -0.53338742f, 0.40675908f, -0.03295835f, 0.55074286f, -0.33771461f, -0.57356691f, 0.29547149f, -0.48732498f, 1.15548670f, -0.71707457f, 0.31431761f, -0.58518195f, -0.87463921f, 0.18035838f, 0.27258560f};
// shape: (5,)
const float biases_2[] = {-0.14473371f, -0.08398770f, -0.42743912f, -0.28943557f, -0.41789737f};

// Normalization parameters
// shape: (36,)
const float norm_means[] = {-0.03633750f, -0.82744861f, 0.01726713f, 0.12245046f, 5.75774954f, 9.78743981f, 0.12449754f, 0.19423872f, 0.13443410f, 25.86107768f, 18.74721268f, 21.06544578f, 0.31612168f, 0.94401089f, 0.25098191f, 32.53591663f, 34.46316137f, 42.09075131f, -0.22425926f, -1.20260185f, -0.20423148f, -48.20026852f, -27.50425000f, -27.75235185f, 0.18400000f, -0.53948148f, 0.25954630f, 44.34600000f, 35.99437037f, 43.38073148f, 3.65420581f, 21.32705879f, 2.24123249f, 37992.82431127f, 50180.91143171f, 75532.01797646f};
// shape: (36,)
const float norm_stds[] = {0.37796970f, 0.53823296f, 0.27661379f, 23.44804815f, 42.06717881f, 52.86708343f, 0.15175357f, 0.23293419f, 0.13105631f, 26.09635838f, 18.83582692f, 21.02677827f, 0.28771058f, 0.41856466f, 0.22151683f, 29.00095420f, 36.35018680f, 44.77688637f, 0.40020845f, 0.82327295f, 0.37599058f, 68.77270620f, 58.90438552f, 65.77591579f, 0.49070558f, 0.67755652f, 0.36514506f, 49.79666746f, 44.56880847f, 60.60017784f, 6.36452019f, 16.89278932f, 4.63069057f, 63136.47168387f, 93253.56384129f, 159977.78006629f};

// Gesture class names
const char* gesture_names[5] = {"Punch", "Flex", "Shake", "UpDown", "Circle"};
